digraph Tree {
node [shape=box, style="filled, rounded", color="black", fontname="helvetica"] ;
edge [fontname="helvetica"] ;
0 [label="petal width (cm) <= 0.75\ngini = 0.67\nsamples = 95\nvalue = [48, 53, 49]\nclass = versicolor", fillcolor="#f7fefa"] ;
1 [label="gini = 0.0\nsamples = 32\nvalue = [48, 0, 0]\nclass = setosa", fillcolor="#e58139"] ;
0 -> 1 [labeldistance=2.5, labelangle=45, headlabel="True"] ;
2 [label="petal width (cm) <= 1.75\ngini = 0.5\nsamples = 63\nvalue = [0, 53, 49]\nclass = versicolor", fillcolor="#f0fdf5"] ;
0 -> 2 [labeldistance=2.5, labelangle=-45, headlabel="False"] ;
3 [label="petal width (cm) <= 1.45\ngini = 0.1\nsamples = 37\nvalue = [0, 52, 3]\nclass = versicolor", fillcolor="#44e688"] ;
2 -> 3 ;
4 [label="gini = 0.0\nsamples = 28\nvalue = [0, 44, 0]\nclass = versicolor", fillcolor="#39e581"] ;
3 -> 4 ;
5 [label="sepal width (cm) <= 2.9\ngini = 0.4\nsamples = 9\nvalue = [0, 8, 3]\nclass = versicolor", fillcolor="#83efb0"] ;
3 -> 5 ;
6 [label="petal width (cm) <= 1.55\ngini = 0.48\nsamples = 4\nvalue = [0, 2, 3]\nclass = virginica", fillcolor="#d5bdf6"] ;
5 -> 6 ;
7 [label="sepal length (cm) <= 6.15\ngini = 0.38\nsamples = 3\nvalue = [0, 1, 3]\nclass = virginica", fillcolor="#ab7bee"] ;
6 -> 7 ;
8 [label="gini = 0.0\nsamples = 1\nvalue = [0, 0, 1]\nclass = virginica", fillcolor="#8139e5"] ;
7 -> 8 ;
9 [label="sepal width (cm) <= 2.65\ngini = 0.44\nsamples = 2\nvalue = [0, 1, 2]\nclass = virginica", fillcolor="#c09cf2"] ;
7 -> 9 ;
10 [label="gini = 0.0\nsamples = 1\nvalue = [0, 1, 0]\nclass = versicolor", fillcolor="#39e581"] ;
9 -> 10 ;
11 [label="gini = 0.0\nsamples = 1\nvalue = [0, 0, 2]\nclass = virginica", fillcolor="#8139e5"] ;
9 -> 11 ;
12 [label="gini = 0.0\nsamples = 1\nvalue = [0, 1, 0]\nclass = versicolor", fillcolor="#39e581"] ;
6 -> 12 ;
13 [label="gini = 0.0\nsamples = 5\nvalue = [0, 6, 0]\nclass = versicolor", fillcolor="#39e581"] ;
5 -> 13 ;
14 [label="sepal length (cm) <= 5.95\ngini = 0.04\nsamples = 26\nvalue = [0, 1, 46]\nclass = virginica", fillcolor="#843de6"] ;
2 -> 14 ;
15 [label="sepal width (cm) <= 3.1\ngini = 0.18\nsamples = 5\nvalue = [0, 1, 9]\nclass = virginica", fillcolor="#8f4fe8"] ;
14 -> 15 ;
16 [label="gini = 0.0\nsamples = 4\nvalue = [0, 0, 9]\nclass = virginica", fillcolor="#8139e5"] ;
15 -> 16 ;
17 [label="gini = 0.0\nsamples = 1\nvalue = [0, 1, 0]\nclass = versicolor", fillcolor="#39e581"] ;
15 -> 17 ;
18 [label="gini = 0.0\nsamples = 21\nvalue = [0, 0, 37]\nclass = virginica", fillcolor="#8139e5"] ;
14 -> 18 ;
}